digraph Tree {
node [shape=box, style="filled, rounded", color="black", fontname=helvetica] ;
edge [fontname=helvetica] ;
0 [label="类黄酮 <= 1.315\nentropy = 1.547\nsamples = 124\nvalue = [41, 53, 30]\nclass = 雪莉", fillcolor="#e2fbed"] ;
1 [label="颜色强度 <= 3.725\nentropy = 0.592\nsamples = 35\nvalue = [0, 5, 30]\nclass = 贝尔摩德", fillcolor="#965ae9"] ;
0 -> 1 [labeldistance=2.5, labelangle=45, headlabel="True"] ;
2 [label="entropy = 0.0\nsamples = 5\nvalue = [0, 5, 0]\nclass = 雪莉", fillcolor="#39e581"] ;
1 -> 2 ;
3 [label="entropy = 0.0\nsamples = 30\nvalue = [0, 0, 30]\nclass = 贝尔摩德", fillcolor="#8139e5"] ;
1 -> 3 ;
4 [label="酒精 <= 12.785\nentropy = 0.996\nsamples = 89\nvalue = [41, 48, 0]\nclass = 雪莉", fillcolor="#e2fbed"] ;
0 -> 4 [labeldistance=2.5, labelangle=-45, headlabel="False"] ;
5 [label="entropy = 0.0\nsamples = 42\nvalue = [0, 42, 0]\nclass = 雪莉", fillcolor="#39e581"] ;
4 -> 5 ;
6 [label="脯氨酸 <= 655.0\nentropy = 0.551\nsamples = 47\nvalue = [41, 6, 0]\nclass = 琴酒", fillcolor="#e99356"] ;
4 -> 6 ;
7 [label="entropy = 0.0\nsamples = 5\nvalue = [0, 5, 0]\nclass = 雪莉", fillcolor="#39e581"] ;
6 -> 7 ;
8 [label="色调 <= 1.295\nentropy = 0.162\nsamples = 42\nvalue = [41, 1, 0]\nclass = 琴酒", fillcolor="#e6843e"] ;
6 -> 8 ;
9 [label="entropy = 0.0\nsamples = 41\nvalue = [41, 0, 0]\nclass = 琴酒", fillcolor="#e58139"] ;
8 -> 9 ;
10 [label="entropy = 0.0\nsamples = 1\nvalue = [0, 1, 0]\nclass = 雪莉", fillcolor="#39e581"] ;
8 -> 10 ;
}